0.03 0.03 0.05 -0.08 -0.07 0.04 -0.17 0.00 0.04 -0.02 0.01 -0.01 0.03 0.09 -0.04 -0.00 -0.12 -0.13 -0.08 -0.15 -0.01 -0.01 -0.14 -0.00 -0.01 -0.01 0.01 -0.04 0.01 0.02 0.00 -0.03 0.21 -0.25 0.02 0.01 -0.15 -0.16 0.00 0.08 0.05 0.08 -0.08 0.05 -0.04 -0.17 0.02 -0.07 -0.07 0.02 -0.14 0.06 -0.03 -0.02 -0.07 -0.14 -0.08 0.13 0.08 0.06 0.08 0.09 0.05 -0.05 -0.04 0.03 0.05 -0.09 0.11 -0.11 -0.04 0.02 -0.02 0.06 0.06 0.11 0.11 0.05 0.03 0.08 -0.11 -0.08 0.06 0.03 0.20 0.19 -0.06 0.01 -0.12 0.07 -0.03 -0.13 0.11 -0.02 -0.07 -0.05 0.03 0.00 0.01 0.06 -0.11 -0.09 0.12 0.06 0.00 0.07 0.04 0.04 -0.15 0.16 -0.04 -0.10 0.02 -0.01 0.07 -0.01 0.05 0.07 -0.07 -0.01 0.04 0.10 -0.07 0.04 0.01 0.11 -0.05 -0.02 0.02 -0.17 0.01 0.01 -0.02 -0.08 -0.08 0.07 -0.00 -0.01 -0.09 0.06 -0.05 0.01 -0.13 0.07 0.09 -0.11 -0.04 0.02 -0.08 -0.02 0.03 -0.00 -0.02 0.03 0.01 -0.07 -0.05 -0.13 0.02 0.01 0.03 0.00 0.01 -0.09 0.07 -0.12 -0.01 0.07 -0.09 0.15 0.08 0.12 -0.03 0.02 0.05 -0.01 -0.14 0.08 -0.05 -0.03 0.00 -0.00 -0.01 0.18 -0.02 0.03 -0.16 -0.18 -0.01 -0.00 0.05 0.33 0.00 -0.06 0.04 -0.01 0.10 0.02 -0.02 -0.06 -0.04 0.07 -0.09 0.16 0.05 -0.21 0.25 -0.01 -0.07 0.03 0.10 0.07 0.03 -0.05 0.02 0.07 0.16 0.08 0.07 0.11 -0.03 0.03 -0.00 -0.01 -0.08 0.08 0.01 -0.05 0.02 -0.11 -0.09 -0.02 -0.01 0.01 -0.05 -0.05 0.10 0.01 0.10 0.06 0.19 -0.01 -0.06 0.09 -0.03 -0.14 -0.14 0.09 0.11 -0.06 -0.12 0.12 0.18 0.11 0.07 0.04
